{
  "method_name": "MLP",
  "best_fitness": 0.3801652892561983,
  "best_solution": {
    "W1": [
      [
        0.06375525310329759,
        -0.17464944586675638,
        -0.13755086835904065,
        -0.8148476099975668,
        0.6002086331349722,
        0.3809247588676048,
        -0.10785332524806593,
        0.257693611761213,
        0.09428277932745643,
        -0.18442985786994603,
        0.32583404063127747,
        -0.1033970233219023,
        -0.10966398863278912,
        -0.26431446220699095,
        0.15129700541836924,
        -0.033029431144192045
      ],
      [
        0.17889630728537573,
        -0.2011155324599449,
        0.040906851957932026,
        -0.2938647597597348,
        0.2800557235961296,
        0.06360964616329189,
        0.10867812728623392,
        0.1373474413067281,
        -0.33834307903385097,
        0.26033385067408304,
        0.6856138583881541,
        -0.5467020539656403,
        -0.5761017769097676,
        -0.5003673289747393,
        0.2813093862839526,
        0.04275133303630481
      ],
      [
        0.36089714746970203,
        0.24048956130881435,
        0.0705844800645708,
        0.09382164794515878,
        -0.05652785324186623,
        0.28906285438279755,
        -0.37622848698784106,
        -0.14065755987993003,
        0.0813703649910532,
        0.6008853562429125,
        -0.25482716960866175,
        -0.3596342653253161,
        -0.18779927269653446,
        0.32244441051742206,
        -0.07856543791830882,
        0.4415263805990089
      ],
      [
        -0.6245461822818839,
        0.3763932040676161,
        0.3453657227774409,
        -0.4718620384314024,
        0.05119502657663891,
        0.40475655800203725,
        0.029976115877111218,
        0.33301892087768414,
        0.7915145944501789,
        0.09123978383494802,
        -0.0934700146100666,
        -0.25718515413994175,
        0.21595993660838153,
        -0.06527324381448463,
        -0.059701941727440595,
        -0.035102602242569655
      ],
      [
        0.21574478716413553,
        -0.3550120524754434,
        -0.5099429016019039,
        -0.8100933737295319,
        0.3993425789887135,
        0.024527408509079904,
        0.5029752410706004,
        -0.002946693321591894,
        -0.24798345466550514,
        0.15913174416201706,
        -0.025523327115070174,
        -0.4183429501815757,
        -0.2949565645716765,
        0.589710075720881,
        0.1183275884480252,
        0.138739659920138
      ],
      [
        -0.09307169637857231,
        -0.22942626119846224,
        0.2966179348047827,
        -0.03314858551766274,
        -0.25320062573667534,
        -0.0445489854540155,
        -0.3019917127692975,
        0.06358355855204714,
        0.37551425576584907,
        -0.27895146215822536,
        0.47619893360445087,
        -0.2227353398911637,
        0.051280307342243384,
        -0.27833180337749963,
        -0.0738723770860281,
        0.015747077845596605
      ],
      [
        -0.1453184621386961,
        -0.23407042594226365,
        -0.22644070106619074,
        -0.2722613945765148,
        -0.5235191486422119,
        -0.0877020256828674,
        0.13338350342660785,
        0.30291196243466995,
        0.21493811108191332,
        0.8189981845788615,
        0.10624305529239673,
        -0.15216993804208784,
        0.6239674913245125,
        -0.34859875111300564,
        0.3227932745693345,
        -0.31842713152201585
      ],
      [
        0.11793139720546887,
        -0.6557576621223675,
        0.29978191048873126,
        -0.05218307376606232,
        -0.3226514927716387,
        0.559532296158741,
        0.2552545764406625,
        0.015259010930509322,
        -0.24883648703369232,
        -0.014410088114042457,
        -0.0546341848105298,
        0.24145370459385262,
        0.26602685642090196,
        -0.2222827605606475,
        -0.18312854657565242,
        -0.17737611518581817
      ],
      [
        -0.4493349185994708,
        -0.19762057414557105,
        -0.030396634801927853,
        0.2286862876985027,
        0.4403224603720846,
        -0.269445132772874,
        0.18387022619779092,
        -0.14824383050234033,
        0.6926187424153718,
        -0.016168116522317685,
        0.1673563474290625,
        -0.3119172391242791,
        -0.2703094247058864,
        0.06662867541853891,
        -0.12798639635078832,
        0.11781583997037395
      ]
    ],
    "b1": [
      0.00038179627814859563,
      -0.0012680806989762603,
      0.0002602770612394441,
      -0.002406726719135826,
      0.0003265333165996685,
      -0.0006862843523712835,
      -0.0003523353439809352,
      1.2665177709280918e-06,
      0.0015855085704352906,
      9.977624900669924e-05,
      3.404748833957333e-05,
      0.0005885452558577489,
      -8.484690599385671e-05,
      -0.0012093747691990394,
      0.00025643305557963896,
      9.344363274261139e-05
    ],
    "W2": [
      -0.39052565496461616,
      0.16145926186047974,
      -0.22491506820537643,
      0.42449365968151176,
      -0.07503135203397428,
      0.2728034893577052,
      -0.3473771969881496,
      0.10727029400143347,
      -0.22569790625613953,
      -0.1214485641432825,
      0.010231467413144714,
      -0.08426916858769425,
      0.06380103567670144,
      0.18301804846365502,
      0.16440792199662377,
      -0.023750031352684685
    ],
    "b2": -0.005418818866524703
  },
  "history": [
    0.3252032520325204,
    0.33057851239669417,
    0.29310344827586204,
    0.29824561403508776,
    0.29824561403508776,
    0.30357142857142855,
    0.3063063063063063,
    0.3148148148148148,
    0.29906542056074764,
    0.32,
    0.30612244897959184,
    0.3125,
    0.3157894736842105,
    0.3225806451612903,
    0.3225806451612903,
    0.28571428571428575,
    0.28571428571428575,
    0.28571428571428575,
    0.28571428571428575,
    0.3043478260869565,
    0.3043478260869565,
    0.3043478260869565,
    0.3043478260869565,
    0.3043478260869565,
    0.3043478260869565,
    0.3043478260869565,
    0.3043478260869565,
    0.28571428571428575,
    0.26666666666666666,
    0.26666666666666666,
    0.2696629213483146,
    0.2696629213483146,
    0.2696629213483146,
    0.2696629213483146,
    0.27272727272727276,
    0.27272727272727276,
    0.27272727272727276,
    0.27272727272727276,
    0.27272727272727276,
    0.27272727272727276,
    0.27272727272727276,
    0.27272727272727276
  ],
  "metrics": {
    "test_accuracy": 0.4444444444444444,
    "test_precision": 0.3194444444444444,
    "test_recall": 0.46938775510204084,
    "test_f1": 0.3801652892561983,
    "val_best_f1": 0.33057851239669417,
    "stopped_epoch": 42
  },
  "time_sec": 0.04876446723937988,
  "iterations": 42,
  "status": "ok",
  "params_used": {
    "hidden_size": 16,
    "learning_rate": 0.001,
    "epochs": 100,
    "batch_size": 32,
    "l2": 0.0,
    "patience": 40,
    "threshold": 0.5
  },
  "message": null,
  "extra": {
    "problem_type": "classification",
    "task": "Titanic survival prediction",
    "target": "Survived (0/1)",
    "features": [
      "Pclass",
      "Sex",
      "Age",
      "SibSp",
      "Parch",
      "Fare",
      "Embarked_C",
      "Embarked_Q",
      "Embarked_S"
    ],
    "preprocessing": [
      "Age missing -> median",
      "Embarked missing -> mode",
      "Sex -> binary encoding",
      "Embarked -> one-hot",
      "Standardization using train mean/std",
      "Split train/val/test = 70/15/15"
    ],
    "metrics": [
      "accuracy",
      "precision",
      "recall",
      "f1"
    ],
    "name": "Titanic",
    "seed": 2,
    "is_backup": false,
    "primary_method": "MLP"
  }
}